digraph Tree {
node [shape=box, style="rounded", color="black", fontname="helvetica"] ;
edge [fontname="helvetica"] ;
0 [label="temp <= 13.25\nentropy = 0.65\nsamples = 901\nvalue = [1200, 240]"] ;
1 [label="humidity <= 31.415\nentropy = 0.207\nsamples = 411\nvalue = [625, 21]"] ;
0 -> 1 [labeldistance=2.5, labelangle=45, headlabel="True"] ;
2 [label="dew <= -13.05\nentropy = 0.931\nsamples = 17\nvalue = [17, 9]"] ;
1 -> 2 ;
3 [label="entropy = 0.0\nsamples = 6\nvalue = [9, 0]"] ;
2 -> 3 ;
4 [label="summertime <= 0.5\nentropy = 0.998\nsamples = 11\nvalue = [8, 9]"] ;
2 -> 4 ;
5 [label="entropy = 0.994\nsamples = 7\nvalue = [6, 5]"] ;
4 -> 5 ;
6 [label="entropy = 0.918\nsamples = 4\nvalue = [2, 4]"] ;
4 -> 6 ;
7 [label="hour_of_day <= 6.5\nentropy = 0.138\nsamples = 394\nvalue = [608, 12]"] ;
1 -> 7 ;
8 [label="entropy = 0.0\nsamples = 145\nvalue = [226, 0]"] ;
7 -> 8 ;
9 [label="weekday <= 0.5\nentropy = 0.197\nsamples = 249\nvalue = [382, 12]"] ;
7 -> 9 ;
10 [label="entropy = 0.0\nsamples = 73\nvalue = [126, 0]"] ;
9 -> 10 ;
11 [label="hour_of_day <= 18.5\nentropy = 0.264\nsamples = 176\nvalue = [256, 12]"] ;
9 -> 11 ;
12 [label="summertime <= 0.5\nentropy = 0.331\nsamples = 128\nvalue = [185, 12]"] ;
11 -> 12 ;
13 [label="windspeed <= 11.05\nentropy = 0.205\nsamples = 103\nvalue = [151, 5]"] ;
12 -> 13 ;
14 [label="temp <= 6.9\nentropy = 0.353\nsamples = 40\nvalue = [56, 4]"] ;
13 -> 14 ;
15 [label="entropy = 0.0\nsamples = 20\nvalue = [31, 0]"] ;
14 -> 15 ;
16 [label="entropy = 0.579\nsamples = 20\nvalue = [25, 4]"] ;
14 -> 16 ;
17 [label="windspeed <= 21.2\nentropy = 0.084\nsamples = 63\nvalue = [95, 1]"] ;
13 -> 17 ;
18 [label="entropy = 0.0\nsamples = 42\nvalue = [63, 0]"] ;
17 -> 18 ;
19 [label="entropy = 0.196\nsamples = 21\nvalue = [32, 1]"] ;
17 -> 19 ;
20 [label="visibility <= 15.95\nentropy = 0.659\nsamples = 25\nvalue = [34, 7]"] ;
12 -> 20 ;
21 [label="entropy = 0.0\nsamples = 7\nvalue = [13, 0]"] ;
20 -> 21 ;
22 [label="temp <= 12.1\nentropy = 0.811\nsamples = 18\nvalue = [21, 7]"] ;
20 -> 22 ;
23 [label="entropy = 0.937\nsamples = 12\nvalue = [11, 6]"] ;
22 -> 23 ;
24 [label="entropy = 0.439\nsamples = 6\nvalue = [10, 1]"] ;
22 -> 24 ;
25 [label="entropy = 0.0\nsamples = 48\nvalue = [71, 0]"] ;
11 -> 25 ;
26 [label="dew <= 19.05\nentropy = 0.85\nsamples = 490\nvalue = [575, 219]"] ;
0 -> 26 [labeldistance=2.5, labelangle=-45, headlabel="False"] ;
27 [label="temp <= 21.55\nentropy = 0.934\nsamples = 347\nvalue = [362, 195]"] ;
26 -> 27 ;
28 [label="humidity <= 58.05\nentropy = 0.805\nsamples = 213\nvalue = [260, 85]"] ;
27 -> 28 ;
29 [label="day_of_week <= 4.5\nentropy = 0.999\nsamples = 82\nvalue = [69, 63]"] ;
28 -> 29 ;
30 [label="dew <= -1.35\nentropy = 0.949\nsamples = 57\nvalue = [55, 32]"] ;
29 -> 30 ;
31 [label="entropy = 0.881\nsamples = 5\nvalue = [3, 7]"] ;
30 -> 31 ;
32 [label="humidity <= 54.0\nentropy = 0.909\nsamples = 52\nvalue = [52, 25]"] ;
30 -> 32 ;
33 [label="dew <= 0.1\nentropy = 0.849\nsamples = 47\nvalue = [50, 19]"] ;
32 -> 33 ;
34 [label="entropy = 0.0\nsamples = 8\nvalue = [11, 0]"] ;
33 -> 34 ;
35 [label="entropy = 0.912\nsamples = 39\nvalue = [39, 19]"] ;
33 -> 35 ;
36 [label="entropy = 0.811\nsamples = 5\nvalue = [2, 6]"] ;
32 -> 36 ;
37 [label="humidity <= 49.33\nentropy = 0.894\nsamples = 25\nvalue = [14, 31]"] ;
29 -> 37 ;
38 [label="dew <= 2.4\nentropy = 0.779\nsamples = 21\nvalue = [9, 30]"] ;
37 -> 38 ;
39 [label="cloudcover <= 46.4\nentropy = 0.323\nsamples = 9\nvalue = [1, 16]"] ;
38 -> 39 ;
40 [label="entropy = 0.0\nsamples = 5\nvalue = [0, 11]"] ;
39 -> 40 ;
41 [label="entropy = 0.65\nsamples = 4\nvalue = [1, 5]"] ;
39 -> 41 ;
42 [label="dew <= 5.9\nentropy = 0.946\nsamples = 12\nvalue = [8, 14]"] ;
38 -> 42 ;
43 [label="entropy = 0.994\nsamples = 8\nvalue = [5, 6]"] ;
42 -> 43 ;
44 [label="entropy = 0.845\nsamples = 4\nvalue = [3, 8]"] ;
42 -> 44 ;
45 [label="entropy = 0.65\nsamples = 4\nvalue = [5, 1]"] ;
37 -> 45 ;
46 [label="hour_of_day <= 7.5\nentropy = 0.479\nsamples = 131\nvalue = [191, 22]"] ;
28 -> 46 ;
47 [label="entropy = 0.0\nsamples = 71\nvalue = [116, 0]"] ;
46 -> 47 ;
48 [label="hour_of_day <= 19.5\nentropy = 0.772\nsamples = 60\nvalue = [75, 22]"] ;
46 -> 48 ;
49 [label="dew <= 17.25\nentropy = 0.943\nsamples = 38\nvalue = [39, 22]"] ;
48 -> 49 ;
50 [label="humidity <= 73.455\nentropy = 0.877\nsamples = 33\nvalue = [38, 16]"] ;
49 -> 50 ;
51 [label="entropy = 0.978\nsamples = 17\nvalue = [17, 12]"] ;
50 -> 51 ;
52 [label="entropy = 0.634\nsamples = 16\nvalue = [21, 4]"] ;
50 -> 52 ;
53 [label="entropy = 0.592\nsamples = 5\nvalue = [1, 6]"] ;
49 -> 53 ;
54 [label="entropy = 0.0\nsamples = 22\nvalue = [36, 0]"] ;
48 -> 54 ;
55 [label="hour_of_day <= 8.0\nentropy = 0.999\nsamples = 134\nvalue = [102, 110]"] ;
27 -> 55 ;
56 [label="entropy = 0.0\nsamples = 19\nvalue = [29, 0]"] ;
55 -> 56 ;
57 [label="dew <= 10.85\nentropy = 0.97\nsamples = 115\nvalue = [73, 110]"] ;
55 -> 57 ;
58 [label="month <= 6.5\nentropy = 0.602\nsamples = 20\nvalue = [5, 29]"] ;
57 -> 58 ;
59 [label="temp <= 23.15\nentropy = 0.792\nsamples = 15\nvalue = [5, 16]"] ;
58 -> 59 ;
60 [label="entropy = 0.985\nsamples = 7\nvalue = [4, 3]"] ;
59 -> 60 ;
61 [label="temp <= 26.55\nentropy = 0.371\nsamples = 8\nvalue = [1, 13]"] ;
59 -> 61 ;
62 [label="entropy = 0.503\nsamples = 4\nvalue = [1, 8]"] ;
61 -> 62 ;
63 [label="entropy = 0.0\nsamples = 4\nvalue = [0, 5]"] ;
61 -> 63 ;
64 [label="entropy = 0.0\nsamples = 5\nvalue = [0, 13]"] ;
58 -> 64 ;
65 [label="humidity <= 73.75\nentropy = 0.995\nsamples = 95\nvalue = [68, 81]"] ;
57 -> 65 ;
66 [label="hour_of_day <= 20.5\nentropy = 0.988\nsamples = 88\nvalue = [60, 78]"] ;
65 -> 66 ;
67 [label="day_of_week <= 4.5\nentropy = 0.955\nsamples = 79\nvalue = [47, 78]"] ;
66 -> 67 ;
68 [label="entropy = 0.994\nsamples = 55\nvalue = [39, 47]"] ;
67 -> 68 ;
69 [label="entropy = 0.732\nsamples = 24\nvalue = [8, 31]"] ;
67 -> 69 ;
70 [label="entropy = 0.0\nsamples = 9\nvalue = [13, 0]"] ;
66 -> 70 ;
71 [label="entropy = 0.845\nsamples = 7\nvalue = [8, 3]"] ;
65 -> 71 ;
72 [label="temp <= 25.45\nentropy = 0.473\nsamples = 143\nvalue = [213, 24]"] ;
26 -> 72 ;
73 [label="visibility <= 10.6\nentropy = 0.063\nsamples = 76\nvalue = [135, 1]"] ;
72 -> 73 ;
74 [label="dew <= 20.15\nentropy = 0.297\nsamples = 9\nvalue = [18, 1]"] ;
73 -> 74 ;
75 [label="entropy = 0.811\nsamples = 4\nvalue = [3, 1]"] ;
74 -> 75 ;
76 [label="entropy = 0.0\nsamples = 5\nvalue = [15, 0]"] ;
74 -> 76 ;
77 [label="entropy = 0.0\nsamples = 67\nvalue = [117, 0]"] ;
73 -> 77 ;
78 [label="hour_of_day <= 14.5\nentropy = 0.774\nsamples = 67\nvalue = [78, 23]"] ;
72 -> 78 ;
79 [label="day_of_week <= 3.5\nentropy = 0.386\nsamples = 33\nvalue = [49, 4]"] ;
78 -> 79 ;
80 [label="entropy = 0.0\nsamples = 21\nvalue = [36, 0]"] ;
79 -> 80 ;
81 [label="temp <= 26.9\nentropy = 0.787\nsamples = 12\nvalue = [13, 4]"] ;
79 -> 81 ;
82 [label="entropy = 0.0\nsamples = 6\nvalue = [8, 0]"] ;
81 -> 82 ;
83 [label="entropy = 0.991\nsamples = 6\nvalue = [5, 4]"] ;
81 -> 83 ;
84 [label="hour_of_day <= 19.5\nentropy = 0.968\nsamples = 34\nvalue = [29, 19]"] ;
78 -> 84 ;
85 [label="windspeed <= 15.05\nentropy = 0.84\nsamples = 19\nvalue = [7, 19]"] ;
84 -> 85 ;
86 [label="entropy = 0.544\nsamples = 6\nvalue = [1, 7]"] ;
85 -> 86 ;
87 [label="hour_of_day <= 16.5\nentropy = 0.918\nsamples = 13\nvalue = [6, 12]"] ;
85 -> 87 ;
88 [label="entropy = 0.811\nsamples = 6\nvalue = [6, 2]"] ;
87 -> 88 ;
89 [label="entropy = 0.0\nsamples = 7\nvalue = [0, 10]"] ;
87 -> 89 ;
90 [label="entropy = 0.0\nsamples = 15\nvalue = [22, 0]"] ;
84 -> 90 ;
}